digraph Tree {
node [shape=box, style="filled", color="black", fontname="helvetica"] ;
edge [fontname="helvetica"] ;
0 [label="Temperature of patient <= 37.95\nentropy = 1.954\nsamples = 120\nvalue = [30, 40, 31, 19]", fillcolor="#ecfceb"] ;
1 [label="Lumbar pain <= 0.5\nentropy = 0.918\nsamples = 60\nvalue = [20, 40, 0, 0]", fillcolor="#a3f29c"] ;
0 -> 1 [labeldistance=2.5, labelangle=45, headlabel="True"] ;
2 [label="entropy = 0.0\nsamples = 40\nvalue = [0, 40, 0, 0]", fillcolor="#47e539"] ;
1 -> 2 ;
3 [label="entropy = 0.0\nsamples = 20\nvalue = [20, 0, 0, 0]", fillcolor="#e58139"] ;
1 -> 3 ;
4 [label="Lumbar pain <= 0.5\nentropy = 1.448\nsamples = 60\nvalue = [10, 0, 31, 19]", fillcolor="#c5e2f7"] ;
0 -> 4 [labeldistance=2.5, labelangle=-45, headlabel="False"] ;
5 [label="entropy = 0.0\nsamples = 10\nvalue = [10, 0, 0, 0]", fillcolor="#e58139"] ;
4 -> 5 ;
6 [label="Occurrence of nausea <= 0.5\nentropy = 0.958\nsamples = 50\nvalue = [0, 0, 31, 19]", fillcolor="#b2d9f5"] ;
4 -> 6 ;
7 [label="entropy = 0.0\nsamples = 21\nvalue = [0, 0, 21, 0]", fillcolor="#399de5"] ;
6 -> 7 ;
8 [label="Urine pushing <= 0.5\nentropy = 0.929\nsamples = 29\nvalue = [0, 0, 10, 19]", fillcolor="#eca1f3"] ;
6 -> 8 ;
9 [label="entropy = 0.0\nsamples = 10\nvalue = [0, 0, 10, 0]", fillcolor="#399de5"] ;
8 -> 9 ;
10 [label="entropy = 0.0\nsamples = 19\nvalue = [0, 0, 0, 19]", fillcolor="#d739e5"] ;
8 -> 10 ;
}